digraph Tree {
node [shape=box, style="filled, rounded", color="black", fontname=helvetica] ;
edge [fontname=helvetica] ;
0 [label="mappedFollowerCount <= 31.5\ngini = 0.343\nsamples = 4011\nvalue = [3129, 882]\nclass = No Bot", fillcolor="#eca571"] ;
1 [label="mappedFavouriteCount <= 46.5\ngini = 0.495\nsamples = 1022\nvalue = [458, 564]\nclass = Si Bot", fillcolor="#daedfa"] ;
0 -> 1 [labeldistance=2.5, labelangle=45, headlabel="True"] ;
2 [label="mappedAge <= 4.5\ngini = 0.374\nsamples = 177\nvalue = [44, 133]\nclass = Si Bot", fillcolor="#7bbdee"] ;
1 -> 2 ;
3 [label="mappedFavouriteCount <= 18.5\ngini = 0.16\nsamples = 91\nvalue = [8, 83]\nclass = Si Bot", fillcolor="#4ca6e8"] ;
2 -> 3 ;
4 [label="mappedFavouriteCount <= 10.0\ngini = 0.268\nsamples = 44\nvalue = [7, 37]\nclass = Si Bot", fillcolor="#5eb0ea"] ;
3 -> 4 ;
5 [label="gini = 0.0\nsamples = 15\nvalue = [0, 15]\nclass = Si Bot", fillcolor="#399de5"] ;
4 -> 5 ;
6 [label="mappedFavouriteCount <= 12.5\ngini = 0.366\nsamples = 29\nvalue = [7, 22]\nclass = Si Bot", fillcolor="#78bced"] ;
4 -> 6 ;
7 [label="gini = 0.5\nsamples = 6\nvalue = [3, 3]\nclass = No Bot", fillcolor="#ffffff"] ;
6 -> 7 ;
8 [label="gini = 0.287\nsamples = 23\nvalue = [4, 19]\nclass = Si Bot", fillcolor="#63b2ea"] ;
6 -> 8 ;
9 [label="mappedFavouriteCount <= 43.0\ngini = 0.042\nsamples = 47\nvalue = [1, 46]\nclass = Si Bot", fillcolor="#3d9fe6"] ;
3 -> 9 ;
10 [label="gini = 0.0\nsamples = 40\nvalue = [0, 40]\nclass = Si Bot", fillcolor="#399de5"] ;
9 -> 10 ;
11 [label="gini = 0.245\nsamples = 7\nvalue = [1, 6]\nclass = Si Bot", fillcolor="#5aade9"] ;
9 -> 11 ;
12 [label="mappedFavouriteCount <= 1.5\ngini = 0.487\nsamples = 86\nvalue = [36, 50]\nclass = Si Bot", fillcolor="#c8e4f8"] ;
2 -> 12 ;
13 [label="gini = 0.188\nsamples = 19\nvalue = [2, 17]\nclass = Si Bot", fillcolor="#50a9e8"] ;
12 -> 13 ;
14 [label="mappedDescription <= 0.5\ngini = 0.5\nsamples = 67\nvalue = [34, 33]\nclass = No Bot", fillcolor="#fefbf9"] ;
12 -> 14 ;
15 [label="mappedFollowerCount <= 12.5\ngini = 0.455\nsamples = 40\nvalue = [14, 26]\nclass = Si Bot", fillcolor="#a4d2f3"] ;
14 -> 15 ;
16 [label="gini = 0.397\nsamples = 33\nvalue = [9, 24]\nclass = Si Bot", fillcolor="#83c2ef"] ;
15 -> 16 ;
17 [label="gini = 0.408\nsamples = 7\nvalue = [5, 2]\nclass = No Bot", fillcolor="#efb388"] ;
15 -> 17 ;
18 [label="mappedAge <= 10.5\ngini = 0.384\nsamples = 27\nvalue = [20, 7]\nclass = No Bot", fillcolor="#eead7e"] ;
14 -> 18 ;
19 [label="gini = 0.465\nsamples = 19\nvalue = [12, 7]\nclass = No Bot", fillcolor="#f4caac"] ;
18 -> 19 ;
20 [label="gini = 0.0\nsamples = 8\nvalue = [8, 0]\nclass = No Bot", fillcolor="#e58139"] ;
18 -> 20 ;
21 [label="mappedFollowerCount <= 1.5\ngini = 0.5\nsamples = 845\nvalue = [414, 431]\nclass = Si Bot", fillcolor="#f7fbfe"] ;
1 -> 21 ;
22 [label="mappedAge <= 5.5\ngini = 0.396\nsamples = 158\nvalue = [115, 43]\nclass = No Bot", fillcolor="#efb083"] ;
21 -> 22 ;
23 [label="mappedFavouriteCount <= 330.0\ngini = 0.274\nsamples = 122\nvalue = [102, 20]\nclass = No Bot", fillcolor="#ea9a60"] ;
22 -> 23 ;
24 [label="mappedAge <= 4.5\ngini = 0.158\nsamples = 104\nvalue = [95, 9]\nclass = No Bot", fillcolor="#e78d4c"] ;
23 -> 24 ;
25 [label="gini = 0.343\nsamples = 41\nvalue = [32, 9]\nclass = No Bot", fillcolor="#eca471"] ;
24 -> 25 ;
26 [label="gini = 0.0\nsamples = 63\nvalue = [63, 0]\nclass = No Bot", fillcolor="#e58139"] ;
24 -> 26 ;
27 [label="gini = 0.475\nsamples = 18\nvalue = [7, 11]\nclass = Si Bot", fillcolor="#b7dbf6"] ;
23 -> 27 ;
28 [label="mappedDescription <= 0.5\ngini = 0.461\nsamples = 36\nvalue = [13, 23]\nclass = Si Bot", fillcolor="#a9d4f4"] ;
22 -> 28 ;
29 [label="mappedFavouriteCount <= 177.5\ngini = 0.496\nsamples = 22\nvalue = [12, 10]\nclass = No Bot", fillcolor="#fbeade"] ;
28 -> 29 ;
30 [label="gini = 0.346\nsamples = 9\nvalue = [7, 2]\nclass = No Bot", fillcolor="#eca572"] ;
29 -> 30 ;
31 [label="gini = 0.473\nsamples = 13\nvalue = [5, 8]\nclass = Si Bot", fillcolor="#b5daf5"] ;
29 -> 31 ;
32 [label="gini = 0.133\nsamples = 14\nvalue = [1, 13]\nclass = Si Bot", fillcolor="#48a5e7"] ;
28 -> 32 ;
33 [label="mappedFavouriteCount <= 356.0\ngini = 0.492\nsamples = 687\nvalue = [299, 388]\nclass = Si Bot", fillcolor="#d2e9f9"] ;
21 -> 33 ;
34 [label="mappedAge <= 5.5\ngini = 0.371\nsamples = 195\nvalue = [48, 147]\nclass = Si Bot", fillcolor="#7abded"] ;
33 -> 34 ;
35 [label="mappedFavouriteCount <= 64.5\ngini = 0.499\nsamples = 40\nvalue = [21, 19]\nclass = No Bot", fillcolor="#fdf3ec"] ;
34 -> 35 ;
36 [label="gini = 0.32\nsamples = 10\nvalue = [2, 8]\nclass = Si Bot", fillcolor="#6ab6ec"] ;
35 -> 36 ;
37 [label="gini = 0.464\nsamples = 30\nvalue = [19, 11]\nclass = No Bot", fillcolor="#f4caac"] ;
35 -> 37 ;
38 [label="mappedDescription <= 0.5\ngini = 0.288\nsamples = 155\nvalue = [27, 128]\nclass = Si Bot", fillcolor="#63b2ea"] ;
34 -> 38 ;
39 [label="gini = 0.495\nsamples = 40\nvalue = [18, 22]\nclass = Si Bot", fillcolor="#dbedfa"] ;
38 -> 39 ;
40 [label="gini = 0.144\nsamples = 115\nvalue = [9, 106]\nclass = Si Bot", fillcolor="#4aa5e7"] ;
38 -> 40 ;
41 [label="mappedFollowerCount <= 12.5\ngini = 0.5\nsamples = 492\nvalue = [251, 241]\nclass = No Bot", fillcolor="#fefaf7"] ;
33 -> 41 ;
42 [label="mappedFavouriteCount <= 940.0\ngini = 0.473\nsamples = 235\nvalue = [90, 145]\nclass = Si Bot", fillcolor="#b4daf5"] ;
41 -> 42 ;
43 [label="gini = 0.472\nsamples = 42\nvalue = [26, 16]\nclass = No Bot", fillcolor="#f5cfb3"] ;
42 -> 43 ;
44 [label="gini = 0.443\nsamples = 193\nvalue = [64, 129]\nclass = Si Bot", fillcolor="#9bcef2"] ;
42 -> 44 ;
45 [label="mappedFavouriteCount <= 3555.5\ngini = 0.468\nsamples = 257\nvalue = [161, 96]\nclass = No Bot", fillcolor="#f5ccaf"] ;
41 -> 45 ;
46 [label="gini = 0.477\nsamples = 245\nvalue = [149, 96]\nclass = No Bot", fillcolor="#f6d2b9"] ;
45 -> 46 ;
47 [label="gini = 0.0\nsamples = 12\nvalue = [12, 0]\nclass = No Bot", fillcolor="#e58139"] ;
45 -> 47 ;
48 [label="mappedFavouriteCount <= 48.5\ngini = 0.19\nsamples = 2989\nvalue = [2671, 318]\nclass = No Bot", fillcolor="#e89051"] ;
0 -> 48 [labeldistance=2.5, labelangle=-45, headlabel="False"] ;
49 [label="mappedAge <= 8.5\ngini = 0.496\nsamples = 249\nvalue = [114, 135]\nclass = Si Bot", fillcolor="#e0f0fb"] ;
48 -> 49 ;
50 [label="mappedFollowerCount <= 90253.5\ngini = 0.249\nsamples = 110\nvalue = [16, 94]\nclass = Si Bot", fillcolor="#5baee9"] ;
49 -> 50 ;
51 [label="mappedFavouriteCount <= 2.5\ngini = 0.188\nsamples = 105\nvalue = [11, 94]\nclass = Si Bot", fillcolor="#50a8e8"] ;
50 -> 51 ;
52 [label="gini = 0.0\nsamples = 62\nvalue = [0, 62]\nclass = Si Bot", fillcolor="#399de5"] ;
51 -> 52 ;
53 [label="mappedFollowerCount <= 131.0\ngini = 0.381\nsamples = 43\nvalue = [11, 32]\nclass = Si Bot", fillcolor="#7dbfee"] ;
51 -> 53 ;
54 [label="gini = 0.375\nsamples = 8\nvalue = [6, 2]\nclass = No Bot", fillcolor="#eeab7b"] ;
53 -> 54 ;
55 [label="gini = 0.245\nsamples = 35\nvalue = [5, 30]\nclass = Si Bot", fillcolor="#5aade9"] ;
53 -> 55 ;
56 [label="gini = 0.0\nsamples = 5\nvalue = [5, 0]\nclass = No Bot", fillcolor="#e58139"] ;
50 -> 56 ;
57 [label="mappedFollowerCount <= 234433.5\ngini = 0.416\nsamples = 139\nvalue = [98, 41]\nclass = No Bot", fillcolor="#f0b68c"] ;
49 -> 57 ;
58 [label="mappedFavouriteCount <= 1.5\ngini = 0.49\nsamples = 84\nvalue = [48, 36]\nclass = No Bot", fillcolor="#f8e0ce"] ;
57 -> 58 ;
59 [label="mappedFollowerCount <= 776.5\ngini = 0.426\nsamples = 26\nvalue = [8, 18]\nclass = Si Bot", fillcolor="#91c9f1"] ;
58 -> 59 ;
60 [label="gini = 0.18\nsamples = 10\nvalue = [1, 9]\nclass = Si Bot", fillcolor="#4fa8e8"] ;
59 -> 60 ;
61 [label="gini = 0.492\nsamples = 16\nvalue = [7, 9]\nclass = Si Bot", fillcolor="#d3e9f9"] ;
59 -> 61 ;
62 [label="mappedDescription <= 0.5\ngini = 0.428\nsamples = 58\nvalue = [40, 18]\nclass = No Bot", fillcolor="#f1ba92"] ;
58 -> 62 ;
63 [label="gini = 0.165\nsamples = 11\nvalue = [10, 1]\nclass = No Bot", fillcolor="#e88e4d"] ;
62 -> 63 ;
64 [label="gini = 0.462\nsamples = 47\nvalue = [30, 17]\nclass = No Bot", fillcolor="#f4c8a9"] ;
62 -> 64 ;
65 [label="mappedFollowerCount <= 780543.0\ngini = 0.165\nsamples = 55\nvalue = [50, 5]\nclass = No Bot", fillcolor="#e88e4d"] ;
57 -> 65 ;
66 [label="gini = 0.0\nsamples = 18\nvalue = [18, 0]\nclass = No Bot", fillcolor="#e58139"] ;
65 -> 66 ;
67 [label="mappedFollowerCount <= 964872.0\ngini = 0.234\nsamples = 37\nvalue = [32, 5]\nclass = No Bot", fillcolor="#e99558"] ;
65 -> 67 ;
68 [label="gini = 0.48\nsamples = 5\nvalue = [3, 2]\nclass = No Bot", fillcolor="#f6d5bd"] ;
67 -> 68 ;
69 [label="gini = 0.17\nsamples = 32\nvalue = [29, 3]\nclass = No Bot", fillcolor="#e88e4d"] ;
67 -> 69 ;
70 [label="mappedFavouriteCount <= 4949.5\ngini = 0.125\nsamples = 2740\nvalue = [2557, 183]\nclass = No Bot", fillcolor="#e78a47"] ;
48 -> 70 ;
71 [label="mappedAge <= 9.5\ngini = 0.187\nsamples = 1412\nvalue = [1265, 147]\nclass = No Bot", fillcolor="#e89050"] ;
70 -> 71 ;
72 [label="mappedFavouriteCount <= 426.0\ngini = 0.282\nsamples = 454\nvalue = [377, 77]\nclass = No Bot", fillcolor="#ea9b61"] ;
71 -> 72 ;
73 [label="mappedFavouriteCount <= 380.0\ngini = 0.39\nsamples = 94\nvalue = [69, 25]\nclass = No Bot", fillcolor="#eeaf81"] ;
72 -> 73 ;
74 [label="gini = 0.363\nsamples = 88\nvalue = [67, 21]\nclass = No Bot", fillcolor="#eda877"] ;
73 -> 74 ;
75 [label="gini = 0.444\nsamples = 6\nvalue = [2, 4]\nclass = Si Bot", fillcolor="#9ccef2"] ;
73 -> 75 ;
76 [label="mappedFollowerCount <= 42.5\ngini = 0.247\nsamples = 360\nvalue = [308, 52]\nclass = No Bot", fillcolor="#e9965a"] ;
72 -> 76 ;
77 [label="gini = 0.418\nsamples = 37\nvalue = [26, 11]\nclass = No Bot", fillcolor="#f0b68d"] ;
76 -> 77 ;
78 [label="gini = 0.222\nsamples = 323\nvalue = [282, 41]\nclass = No Bot", fillcolor="#e99356"] ;
76 -> 78 ;
79 [label="mappedFollowerCount <= 467100.5\ngini = 0.135\nsamples = 958\nvalue = [888, 70]\nclass = No Bot", fillcolor="#e78b49"] ;
71 -> 79 ;
80 [label="mappedFollowerCount <= 432470.5\ngini = 0.164\nsamples = 723\nvalue = [658, 65]\nclass = No Bot", fillcolor="#e88d4d"] ;
79 -> 80 ;
81 [label="gini = 0.16\nsamples = 718\nvalue = [655, 63]\nclass = No Bot", fillcolor="#e88d4c"] ;
80 -> 81 ;
82 [label="gini = 0.48\nsamples = 5\nvalue = [3, 2]\nclass = No Bot", fillcolor="#f6d5bd"] ;
80 -> 82 ;
83 [label="mappedAge <= 13.5\ngini = 0.042\nsamples = 235\nvalue = [230, 5]\nclass = No Bot", fillcolor="#e6843d"] ;
79 -> 83 ;
84 [label="gini = 0.034\nsamples = 230\nvalue = [226, 4]\nclass = No Bot", fillcolor="#e5833d"] ;
83 -> 84 ;
85 [label="gini = 0.32\nsamples = 5\nvalue = [4, 1]\nclass = No Bot", fillcolor="#eca06a"] ;
83 -> 85 ;
86 [label="mappedDescription <= 0.5\ngini = 0.053\nsamples = 1328\nvalue = [1292, 36]\nclass = No Bot", fillcolor="#e6853f"] ;
70 -> 86 ;
87 [label="mappedAge <= 8.5\ngini = 0.148\nsamples = 112\nvalue = [103, 9]\nclass = No Bot", fillcolor="#e78c4a"] ;
86 -> 87 ;
88 [label="mappedFavouriteCount <= 18591.5\ngini = 0.273\nsamples = 49\nvalue = [41, 8]\nclass = No Bot", fillcolor="#ea9a60"] ;
87 -> 88 ;
89 [label="gini = 0.384\nsamples = 27\nvalue = [20, 7]\nclass = No Bot", fillcolor="#eead7e"] ;
88 -> 89 ;
90 [label="gini = 0.087\nsamples = 22\nvalue = [21, 1]\nclass = No Bot", fillcolor="#e68742"] ;
88 -> 90 ;
91 [label="mappedFavouriteCount <= 6466.5\ngini = 0.031\nsamples = 63\nvalue = [62, 1]\nclass = No Bot", fillcolor="#e5833c"] ;
87 -> 91 ;
92 [label="gini = 0.278\nsamples = 6\nvalue = [5, 1]\nclass = No Bot", fillcolor="#ea9a61"] ;
91 -> 92 ;
93 [label="gini = 0.0\nsamples = 57\nvalue = [57, 0]\nclass = No Bot", fillcolor="#e58139"] ;
91 -> 93 ;
94 [label="mappedFavouriteCount <= 167394.5\ngini = 0.043\nsamples = 1216\nvalue = [1189, 27]\nclass = No Bot", fillcolor="#e6843d"] ;
86 -> 94 ;
95 [label="mappedFollowerCount <= 6767.5\ngini = 0.038\nsamples = 1180\nvalue = [1157, 23]\nclass = No Bot", fillcolor="#e6843d"] ;
94 -> 95 ;
96 [label="gini = 0.019\nsamples = 727\nvalue = [720, 7]\nclass = No Bot", fillcolor="#e5823b"] ;
95 -> 96 ;
97 [label="gini = 0.068\nsamples = 453\nvalue = [437, 16]\nclass = No Bot", fillcolor="#e68640"] ;
95 -> 97 ;
98 [label="mappedFavouriteCount <= 173275.0\ngini = 0.198\nsamples = 36\nvalue = [32, 4]\nclass = No Bot", fillcolor="#e89152"] ;
94 -> 98 ;
99 [label="gini = 0.48\nsamples = 5\nvalue = [2, 3]\nclass = Si Bot", fillcolor="#bddef6"] ;
98 -> 99 ;
100 [label="gini = 0.062\nsamples = 31\nvalue = [30, 1]\nclass = No Bot", fillcolor="#e68540"] ;
98 -> 100 ;
}